-1.087693e-01 -8.996017e-01 -4.720592e-01 -2.045223e-01 6.684744e-01 -2.305570e-01 8.877799e-01 -2.549031e-01 -6.022057e-01 -2.596797e-01
-4.579174e-01 -1.375281e-01 -4.425140e-02 -4.643663e-01 1.995215e-01 -1.058206e+00 8.649241e-02 2.889091e-01 -1.050789e-01 3.086598e-02
2.647365e-02 -1.981802e-01 -3.473355e-01 -1.862526e-01 -3.373460e-01 -2.764335e-01 -4.690345e-02 -6.845320e-01 -2.775135e-01 -4.529255e-01
-7.989305e-01 -2.589937e-01 -1.408710e-01 -1.421736e-01 -1.056745e-01 -1.459877e-02 -2.385788e-02 -6.815544e-01 -4.995504e-01 -2.418365e-01
-2.193827e-01 -7.143314e-01 -2.320931e-01 -3.854359e-01 4.562775e-01 8.257916e-01 8.317481e-01 -6.025665e-01 -3.292276e-01 -5.088340e-01
-4.239969e-01 5.346984e-01 2.715402e-01 -3.364044e-01 3.955532e-01 -7.519471e-01 -6.986890e-01 3.688266e-01 1.369990e-01 5.383531e-02
4.294904e-01 -3.738094e-01 -2.981987e-01 1.201626e-01 -3.238408e-01 3.034337e-01 -1.477150e-01 -6.642459e-01 -2.055281e-01 -3.088006e-01
7.344095e-01 -2.598367e-01 -2.010955e-01 -1.926593e-01 -1.215932e-01 -3.201929e-01 1.186874e-01 2.900107e-01 -5.231212e-02 4.455973e-02
-4.614057e-02 -1.929808e-01 -3.553456e-02 5.452429e-01 -1.413383e-01 -4.033945e-01 -3.039215e-01 -1.327605e-01 -2.720934e-01 -2.668008e-01
-3.640398e-01 -9.775725e-02 1.970994e-01 -4.448959e-01 -8.460035e-01 -7.608467e-01 3.311511e-01 2.886390e-01 1.971357e-01 4.105878e-01
-4.325034e-01 -5.395108e-01 -1.715691e+00 2.054373e-01 2.287819e-01 3.933956e-02 -3.119749e-01 7.871544e-01 6.975234e-01 3.141316e-01
-6.526433e-02 -5.352950e-02 1.012808e-01 4.329268e-02 6.519785e-01 1.928582e-03 3.093679e-02 1.924594e-01 -3.193283e-02 -1.346957e-01
6.632744e-01 -7.730317e-01 -6.071236e-01 -3.430470e-01 7.775357e-01 -6.539790e-01 -2.715614e-01 -4.488470e-01 -7.511817e-01 -6.246771e-01
-9.953293e-02 1.436606e-01 1.456211e-01 4.318708e-01 5.054493e-01 -2.954149e-01 -1.141589e-01 1.020573e-01 -2.107788e-02 -2.496175e-01
-4.519925e-01 -8.194965e-03 5.774217e-01 -4.213577e-01 -8.058762e-01 -8.172632e-01 1.967271e-01 2.194181e-01 1.568313e-01 5.559479e-01
-2.672241e-01 -2.468181e-01 -3.482380e-01 2.927527e-01 -5.649804e-01 7.891833e-01 -3.261595e-01 -1.431286e+00 -3.402426e-01 1.192413e+00
-1.311926e-01 -1.865862e-01 -1.108092e+00 -3.266177e-01 -3.629973e-01 6.489812e-01 -1.030743e-02 1.238763e+00 1.168545e+00 -6.092762e-01
4.400486e-01 -7.290502e-01 6.248648e-01 -4.655721e-01 -6.422577e-01 2.927577e-01 -2.181768e-01 3.392899e-01 4.938049e-01 -1.096684e+00
-6.022235e-01 -1.829516e-01 2.449704e-01 -1.916190e-02 -7.323373e-01 2.407246e-02 5.682236e-02 -1.523449e-01 3.912322e-02 -1.398005e+00
-4.487771e-02 -1.566706e-01 -9.236999e-01 -8.509648e-02 2.965163e-01 -2.353949e-01 -1.563381e-02 -1.103871e+00 1.336356e+00 6.741385e-01
-2.189362e-01 -3.200453e-01 -1.137975e+00 3.150634e-01 -3.583039e-01 3.420892e-01 -1.933514e-01 1.790088e+00 -1.101527e+00 7.557107e-01
-1.483865e-01 -2.683528e-01 -4.210413e-02 5.617961e-01 -1.342799e-01 -4.125578e-01 -6.219540e-02 -1.846329e-01 -6.742704e-02 -2.280602e-01
3.020590e-01 2.761066e-01 -5.832058e-01 2.825363e-01 -3.444851e-01 -6.088003e-01 2.190111e-01 -5.038755e-01 -4.016497e-01 -3.580901e-01
-1.654350e-01 -9.779692e-03 -1.790225e-01 5.546627e-01 -1.431378e-01 -3.262679e-01 -6.484850e-02 -8.294347e-02 7.653573e-02 -3.356402e-01
-4.707849e-01 -5.261035e-01 3.054497e-01 1.216942e-01 5.926297e-02 -1.267210e-01 -3.303022e-01 -3.471992e-01 1.361018e-01 -1.720006e-01
-3.802501e-01 -5.131969e-01 9.606624e-01 -4.619304e-01 3.234495e-01 4.750113e-01 -1.531029e-01 7.260765e-01 -1.532614e+00 3.988861e-01
-2.327586e-01 7.979199e-01 -7.052009e-01 -2.867276e-01 -2.914961e-01 -2.350172e-01 4.730796e-01 -4.812667e-01 -5.639269e-01 -2.640804e-01
6.071548e-01 -1.839571e-01 1.044577e-01 -7.055791e-02 -2.501039e-01 -2.513224e-01 -4.409503e-02 5.992115e-01 1.011461e-01 2.501077e-01
-2.047329e-01 -2.582317e-01 -3.761216e-01 6.215669e-01 -4.711750e-02 -5.145837e-01 -2.609701e-01 -4.255406e-01 -5.918729e-01 -4.997668e-01
-4.404593e-01 -7.262774e-01 5.318101e-01 -3.780410e-01 1.131173e-01 2.678829e-01 -1.653964e-01 -3.328062e-01 1.322048e-01 2.126871e-01
-1.116146e-01 7.738877e-01 -5.828833e-01 -2.078756e-01 -1.975463e-01 7.723407e-02 3.943252e-01 -1.770563e-01 -4.100713e-01 -1.140328e-01
2.232971e-01 2.620329e-01 -2.491052e-02 -6.785214e-01 -1.638112e-01 1.472562e-01 -7.762518e-01 -4.403935e-01 3.706315e-02 5.286296e-02
2.286304e-01 3.228567e-01 -4.604107e-02 -6.579544e-01 -1.035444e-01 6.415863e-02 -8.516043e-01 -3.623586e-01 -3.322639e-01 -2.410299e-01
4.108650e-02 1.887049e-01 8.194603e-02 1.194099e-02 -2.586737e-01 -2.906304e-01 -9.733910e-01 -4.961239e-01 -2.653124e-01 -1.710492e-01
2.540411e-03 1.182083e+00 -3.055318e-01 -1.298326e-02 -1.366075e-01 -1.789418e-03 -3.427835e-01 -3.348166e-02 -1.225495e-01 -3.250389e-01
